{
    "l1.weight": [
        [
            0.02750374749302864,
            -0.021121332421898842,
            0.027153898030519485,
            -0.004618201404809952,
            0.005522433668375015,
            -0.004936486482620239,
            -0.008924189954996109,
            -0.023057788610458374,
            -0.033883947879076004,
            0.00811716914176941,
            0.012354489415884018,
            0.007370881736278534,
            0.050057750195264816,
            0.045640729367733,
            0.01912887766957283,
            0.0005060976254753768,
            -0.017865587025880814,
            -0.029353316873311996,
            0.00324302539229393,
            0.02176586166024208,
            -0.012800335884094238,
            0.03339308872818947,
            0.01786007732152939,
            -0.025328582152724266,
            0.03455397114157677,
            0.030111398547887802,
            -0.027734238654375076,
            0.02838875725865364,
            -0.000582616776227951,
            0.010721679776906967,
            0.031968679279088974,
            0.028247874230146408,
            0.05041918158531189,
            0.0700208842754364,
            0.10205069929361343,
            0.0746079608798027,
            0.05851701274514198,
            0.05475328117609024,
            0.03303808346390724,
            0.0822053849697113,
            0.12077821791172028,
            0.0678536519408226,
            0.005553082097321749,
            -0.033383436501026154,
            -0.06063202768564224,
            0.0069543360732495785,
            0.08922520279884338,
            0.05908467248082161,
            0.037857264280319214,
            0.03683085739612579,
            0.040418848395347595,
            0.0393369235098362,
            -0.026208240538835526,
            0.03263871744275093,
            0.032298456877470016,
            -0.030602410435676575,
            -0.00827447883784771,
            0.02575507014989853,
            -0.016832994297146797,
            -0.03290212154388428,
            -0.0024417832028120756,
            0.014920017682015896,
            0.04324338212609291,
            0.04903046414256096,
            0.08038073033094406,
            0.05865180119872093,
            0.05734316632151604,
            0.08281582593917847,
            0.07123403251171112,
            0.03162639960646629,
            0.051598500460386276,
            -0.022499358281493187,
            -0.011961182579398155,
            0.0613529272377491,
            0.07477408647537231,
            0.06020120903849602,
            0.051214125007390976,
            0.09629148244857788,
            0.11185313016176224,
            0.07777811586856842,
            -0.029150696471333504,
            -0.050841402262449265,
            0.015166375786066055,
            -0.007144395262002945,
            -0.0064785778522491455,
            -0.030589139088988304,
            -0.020648714154958725,
            0.05263147130608559,
            0.008195318281650543,
            -0.0008010607562027872,
            -0.002033908385783434,
            0.019949892535805702,
            -0.023162303492426872,
            0.012782786041498184,
            0.02950621210038662,
            0.005061589181423187,
            0.023010248318314552,
            -0.023968614637851715,
            0.027357304468750954,
            0.007227456197142601,
            0.016219140961766243,
            0.04660806432366371,
            0.09153792262077332,
            0.09604774415493011,
            0.05726762115955353,
            0.12421892583370209,
            0.11889656633138657,
            0.18793825805187225,
            0.08760249614715576,
            0.006005890667438507,
            0.0145949088037014,
            -0.003097791224718094,
            -0.0319812148809433,
            0.01271103322505951,
            -0.05519759654998779,
            -0.022028250619769096,
            -0.07545515894889832,
            -0.07784785330295563,
            -0.07258335500955582,
            -0.030350107699632645,
            -0.07747787982225418,
            -0.043793708086013794,
            -0.03125970438122749,
            -0.00512155843898654,
            -0.03413812443614006,
            -0.011643600650131702,
            0.05360668897628784,
            0.0319519080221653,
            0.06687673926353455,
            0.05984961986541748,
            0.04047559201717377,
            0.04501964524388313,
            0.07469264417886734,
            0.1284593641757965,
            0.09667970985174179,
            0.15720975399017334,
            0.1442386656999588,
            0.0648094043135643,
            0.0746547281742096,
            0.039918214082717896,
            -0.013547949492931366,
            -0.015377560630440712,
            -0.019438600167632103,
            -0.06473047286272049,
            -0.11687716096639633,
            -0.17015878856182098,
            -0.10240408778190613,
            -0.04234861209988594,
            -0.03704163059592247,
            0.015388810075819492,
            -0.009936772286891937,
            -0.010590515099465847,
            0.0011009068693965673,
            0.014967885799705982,
            -0.0029175523668527603,
            0.04954599216580391,
            0.04113364964723587,
            0.05185035243630409,
            0.03767307847738266,
            0.08228442072868347,
            0.08815856277942657,
            0.042084548622369766,
            0.06962724775075912,
            0.10083693265914917,
            0.1386469453573227,
            0.19323040544986725,
            0.11198258399963379,
            0.04508263245224953,
            0.0016781352460384369,
            -0.04054227098822594,
            -0.013722836039960384,
            -0.1243247464299202,
            -0.08316212892532349,
            -0.13218693435192108,
            -0.09849432855844498,
            -0.0028766337782144547,
            0.022325271740555763,
            0.027829742059111595,
            0.008872535079717636,
            0.011558935977518559,
            -0.01292608305811882,
            -0.023721294477581978,
            0.03961239382624626,
            0.033428795635700226,
            0.04398620128631592,
            0.015606691129505634,
            0.006802350282669067,
            0.027370303869247437,
            -0.003096926724538207,
            0.043928228318691254,
            0.039353225380182266,
            0.10313713550567627,
            0.13108213245868683,
            0.1973179280757904,
            0.09950576722621918,
            0.019035421311855316,
            0.020644385367631912,
            -0.0500604510307312,
            -0.046325940638780594,
            -0.12698622047901154,
            -0.07907789200544357,
            -0.09835809469223022,
            -0.07287351787090302,
            0.028430862352252007,
            0.04651195555925369,
            -0.01981654204428196,
            0.0041976370848715305,
            0.0086140101775527,
            0.015939565375447273,
            -0.005723579321056604,
            -0.013213923200964928,
            0.010604428127408028,
            0.0022364314645528793,
            -0.06644786149263382,
            -0.031077489256858826,
            -0.0312843881547451,
            -0.007992724888026714,
            0.0055759502574801445,
            0.038234733045101166,
            0.12846256792545319,
            0.1849050670862198,
            0.17244994640350342,
            0.08197019249200821,
            0.07541483640670776,
            0.03028237074613571,
            -0.03980075195431709,
            -0.053280849009752274,
            -0.05804406479001045,
            -0.1361752152442932,
            -0.047806043177843094,
            -0.0012924891198053956,
            0.00272076646797359,
            0.04574071988463402,
            0.008233664557337761,
            0.05003431439399719,
            0.049941688776016235,
            -0.004307171329855919,
            -0.03605712205171585,
            -0.04855171591043472,
            -0.0826600193977356,
            -0.08189698308706284,
            -0.0882590264081955,
            -0.038756098598241806,
            -0.053799133747816086,
            0.007268828805536032,
            0.06375221908092499,
            0.0036602080799639225,
            0.09113314747810364,
            0.17296871542930603,
            0.1960896998643875,
            0.14733059704303741,
            0.058660268783569336,
            -0.054994285106658936,
            -0.07833219319581985,
            -0.05685809627175331,
            -0.06412066519260406,
            -0.10085176676511765,
            -0.06263325363397598,
            0.007885441184043884,
            0.03661190718412399,
            0.06010594964027405,
            0.04991786926984787,
            0.07143078744411469,
            0.023892704397439957,
            0.049932412803173065,
            -0.020443705841898918,
            -0.1022021546959877,
            -0.16173088550567627,
            -0.09355422109365463,
            -0.08302601426839828,
            -0.0646645650267601,
            -0.05226323753595352,
            -0.033050183206796646,
            0.001469846349209547,
            -0.01215926744043827,
            0.08587446063756943,
            0.18683110177516937,
            0.21956999599933624,
            0.07531096786260605,
            0.0007960563525557518,
            0.0006519316229969263,
            -0.05001665651798248,
            -0.0917191207408905,
            -0.13457530736923218,
            -0.08195672184228897,
            -0.048128023743629456,
            0.029684141278266907,
            0.03736262395977974,
            0.09789156168699265,
            0.10991758853197098,
            0.08916011452674866,
            0.06441143155097961,
            0.03559865429997444,
            0.02016706019639969,
            -0.11335568875074387,
            -0.13356588780879974,
            -0.13710862398147583,
            -0.10562419146299362,
            -0.05303176864981651,
            -0.04925922676920891,
            -0.028945932164788246,
            -0.038327500224113464,
            0.00954227615147829,
            0.11932596564292908,
            0.19833068549633026,
            0.15557797253131866,
            0.05270896852016449,
            -0.03306858241558075,
            -0.020047955214977264,
            -0.025734351947903633,
            -0.13110250234603882,
            -0.15152084827423096,
            -0.1090766042470932,
            0.006095188669860363,
            0.07622233033180237,
            0.09197502583265305,
            0.10882482677698135,
            0.09912625700235367,
            0.048452604562044144,
            0.047589246183633804,
            0.04816904291510582,
            0.06796044856309891,
            -0.06173432618379593,
            -0.0831841304898262,
            -0.10820269584655762,
            -0.06283046305179596,
            -0.07444405555725098,
            -0.018445774912834167,
            -0.058747582137584686,
            -0.002920489991083741,
            -0.017730476334691048,
            0.0820508748292923,
            0.1394852101802826,
            0.1277066469192505,
            0.09583928436040878,
            -0.03041614219546318,
            0.018317624926567078,
            -0.0638173520565033,
            -0.0918850302696228,
            -0.0992913469672203,
            -0.08172488212585449,
            0.006160513497889042,
            0.06269533932209015,
            0.12208978831768036,
            0.07531825453042984,
            0.04317042604088783,
            0.03594178706407547,
            0.07293633371591568,
            0.07101475447416306,
            0.10529044270515442,
            -0.06388147175312042,
            -0.05914198234677315,
            -0.014964688569307327,
            -0.03834020346403122,
            -0.017480358481407166,
            0.01679684780538082,
            -0.0014801113866269588,
            0.02859974279999733,
            0.008606651797890663,
            0.061304233968257904,
            0.10585842281579971,
            -0.042935073375701904,
            -0.033276405185461044,
            -0.09384886920452118,
            -0.019039368256926537,
            -0.039497166872024536,
            -0.056129664182662964,
            -0.13053013384342194,
            -0.09880509972572327,
            0.049862198531627655,
            0.09520742297172546,
            0.059927135705947876,
            0.07179334759712219,
            0.09528521448373795,
            0.09474796056747437,
            0.09582116454839706,
            0.12986968457698822,
            0.06780771911144257,
            0.0036868241149932146,
            0.014924705028533936,
            0.028454933315515518,
            0.000364313687896356,
            -0.013885919004678726,
            -0.007084678392857313,
            0.04290299490094185,
            0.04773563891649246,
            0.06138435751199722,
            0.09203582257032394,
            0.0036499816924333572,
            -0.1028953492641449,
            -0.1441546529531479,
            -0.014492741785943508,
            0.0010410675313323736,
            -0.010196484625339508,
            -0.08525564521551132,
            -0.07098963856697083,
            -0.07073257118463516,
            0.00022831730893813074,
            0.026961425319314003,
            0.020502228289842606,
            0.02338186465203762,
            0.051562707871198654,
            0.12584321200847626,
            0.09597162157297134,
            0.0661131888628006,
            0.07620347291231155,
            0.014177115634083748,
            0.025007197633385658,
            0.03759526088833809,
            0.03693104535341263,
            -0.055498361587524414,
            -0.024144329130649567,
            -0.027015602216124535,
            -0.01235884614288807,
            -0.017967788502573967,
            0.002948478562757373,
            0.0023833606392145157,
            -0.06897823512554169,
            -0.13930808007717133,
            -0.05692824721336365,
            -0.014280952513217926,
            -0.008878366090357304,
            -0.031899530440568924,
            -0.11693979799747467,
            -0.1200147271156311,
            -0.0770660936832428,
            -0.11559884995222092,
            -0.052669886499643326,
            0.043755903840065,
            0.07027566432952881,
            0.11493159830570221,
            0.12762653827667236,
            0.07883507013320923,
            0.06575240939855576,
            0.025736723095178604,
            0.058865856379270554,
            0.04406727850437164,
            -0.03457396849989891,
            -0.039572156965732574,
            -0.0385100319981575,
            -0.04763590171933174,
            -0.038700662553310394,
            -0.0559297613799572,
            -0.023258814588189125,
            -0.029209503903985023,
            -0.06918761134147644,
            -0.11936361342668533,
            -0.08701610565185547,
            -0.005369927734136581,
            -0.04615241661667824,
            -0.09838777780532837,
            -0.08442438393831253,
            -0.23509030044078827,
            -0.13809296488761902,
            -0.05738336220383644,
            -0.06529148668050766,
            0.009036202915012836,
            0.055716268718242645,
            0.089459627866745,
            0.05730833858251572,
            0.04439563676714897,
            0.03981826826930046,
            0.006232889369130135,
            0.042319681495428085,
            0.02148478291928768,
            -0.03636782616376877,
            -0.04378410056233406,
            -0.04899953678250313,
            -0.009054130874574184,
            -0.0522165447473526,
            -0.05132288858294487,
            -0.01022360846400261,
            -0.014073770493268967,
            -0.08690782636404037,
            -0.18163828551769257,
            -0.0754801407456398,
            0.025651708245277405,
            -0.039268627762794495,
            -0.027418769896030426,
            -0.08529580384492874,
            -0.16148526966571808,
            -0.08880870789289474,
            -0.03191731497645378,
            0.02825012058019638,
            0.04341435804963112,
            0.0704694390296936,
            0.04742393270134926,
            0.03614382818341255,
            0.048015106469392776,
            0.003483738750219345,
            -0.02792182005941868,
            -0.041115134954452515,
            -0.020070938393473625,
            0.012701395899057388,
            0.014574135653674603,
            0.014368937350809574,
            -0.009980238042771816,
            -0.034805260598659515,
            -0.017371945083141327,
            0.01790889911353588,
            -0.059339478611946106,
            -0.11294501274824142,
            -0.14668008685112,
            -0.06725286692380905,
            -0.06286497414112091,
            -0.04479889199137688,
            -0.0653233453631401,
            -0.09202903509140015,
            -0.14529956877231598,
            -0.06850021332502365,
            0.018921324983239174,
            0.0071479324251413345,
            0.020264875143766403,
            0.06776079535484314,
            0.051860470324754715,
            0.0850459411740303,
            0.07732581347227097,
            -0.0017968137981370091,
            -0.038005173206329346,
            0.014044547453522682,
            0.02654178813099861,
            -0.0214717835187912,
            0.03071427345275879,
            0.021077893674373627,
            -0.026613859459757805,
            -0.015409919433295727,
            -0.046354442834854126,
            0.027554385364055634,
            -0.02626367285847664,
            -0.09108487516641617,
            -0.09895336627960205,
            -0.05207972973585129,
            0.016487976536154747,
            -0.06001100689172745,
            -0.07356530427932739,
            -0.11533894389867783,
            -0.09355422109365463,
            -0.032674986869096756,
            0.015863699838519096,
            0.035902317613363266,
            0.015559477731585503,
            0.032452162355184555,
            0.0908389762043953,
            0.0302636306732893,
            0.03642001748085022,
            0.009274635463953018,
            0.03765813633799553,
            0.08006235212087631,
            0.04281352460384369,
            0.04169204458594322,
            0.05339672043919563,
            0.030134739354252815,
            0.0015870529459789395,
            0.020979344844818115,
            0.0049263290129601955,
            -0.012281383387744427,
            -0.006661328952759504,
            -0.10536648333072662,
            -0.11900082975625992,
            -0.015309756621718407,
            0.015614904463291168,
            0.011379639618098736,
            -0.034789931029081345,
            -0.10706638544797897,
            -0.08728744834661484,
            -0.017832688987255096,
            -0.028618428856134415,
            0.04984864592552185,
            0.013572688214480877,
            0.04304930940270424,
            0.04968174919486046,
            0.05588633939623833,
            0.11280277371406555,
            0.07444672286510468,
            0.0896885022521019,
            0.060860443860292435,
            0.0149479815736413,
            -0.003831674112007022,
            0.042668044567108154,
            -0.013527479954063892,
            -0.0067954882979393005,
            0.028878742828965187,
            0.05622253194451332,
            0.04502660408616066,
            -0.04962681606411934,
            -0.0884910374879837,
            -0.039621226489543915,
            -0.06410647183656693,
            -0.04260721430182457,
            -0.06325119733810425,
            -0.03487776964902878,
            -0.0829937532544136,
            -0.07803364098072052,
            -0.08940446376800537,
            -0.03850957751274109,
            0.024378284811973572,
            -0.0030444455333054066,
            0.08090702444314957,
            0.06996804475784302,
            0.05854126065969467,
            0.140853613615036,
            0.09663576632738113,
            0.10685738921165466,
            0.10775910317897797,
            0.0576583556830883,
            0.023867405951023102,
            0.025991564616560936,
            -0.020472537726163864,
            0.020989496260881424,
            0.03957599401473999,
            0.07417270541191101,
            0.016419466584920883,
            -0.11874816566705704,
            -0.10124370455741882,
            -0.005621613468974829,
            -0.02272428572177887,
            -0.06714431196451187,
            -0.022704897448420525,
            -0.08309711515903473,
            -0.07774094492197037,
            -0.06283056735992432,
            -0.08563487976789474,
            -0.09377700090408325,
            -0.018560178577899933,
            -0.035776536911726,
            -0.023525729775428772,
            0.018494093790650368,
            0.07561784237623215,
            0.08921848982572556,
            0.14816851913928986,
            0.06214847043156624,
            0.041653428226709366,
            0.027906399220228195,
            0.02498842217028141,
            -0.007992114871740341,
            -0.03225334361195564,
            -0.007690988946706057,
            0.005532349459826946,
            0.007953311316668987,
            -0.0095494594424963,
            -0.0319691002368927,
            -0.04651143029332161,
            -0.0004112873284611851,
            -0.0017525898292660713,
            0.028490673750638962,
            0.004247922450304031,
            0.002740425756201148,
            -0.07958927005529404,
            -0.045110490173101425,
            -0.11687532067298889,
            -0.11011635512113571,
            -0.05946236103773117,
            0.00830918736755848,
            -0.01021796278655529,
            0.023714711889624596,
            0.042462725192308426,
            0.08526531606912613,
            0.0914328470826149,
            0.07709643244743347,
            0.04051714017987251,
            0.01741531305015087,
            0.014682522043585777,
            0.02252533659338951,
            0.026021702215075493,
            0.010882029309868813,
            0.05095626041293144,
            0.02612648718059063,
            0.06736929714679718,
            -0.07319384068250656,
            -0.03453737869858742,
            -0.04542885348200798,
            0.019775647670030594,
            0.013938132673501968,
            -0.0219266414642334,
            -0.00386945647187531,
            -0.0029325424693524837,
            -0.07382708787918091,
            -0.12326490134000778,
            -0.11004730314016342,
            -0.04458627849817276,
            0.0017220060108229518,
            0.0067865378223359585,
            0.04426359385251999,
            0.03968065604567528,
            0.027596324682235718,
            0.05746176838874817,
            0.037624675780534744,
            0.053432103246450424,
            0.0378609262406826,
            0.015289015136659145,
            0.04147084057331085,
            0.029385274276137352,
            0.026205142959952354,
            -0.005153156816959381,
            0.0090645095333457,
            0.004037246108055115,
            -0.030848011374473572,
            -0.07891639322042465,
            -0.018223579972982407,
            0.026259828358888626,
            0.026370704174041748,
            0.012377295643091202,
            0.0009172649588435888,
            0.019073186442255974,
            -0.03936183080077171,
            -0.10033770650625229,
            -0.09236902743577957,
            -0.092825748026371,
            -0.1444568783044815,
            -0.11017395555973053,
            -0.008083930239081383,
            -0.011569197289645672,
            -0.039648447185754776,
            -0.008846940472722054,
            -0.027684342116117477,
            0.008205713704228401,
            0.025431659072637558,
            0.03194944187998772,
            0.016436442732810974,
            -0.03974173963069916,
            -0.052771393209695816,
            -0.08861555904150009,
            0.01864359714090824,
            0.02757320925593376,
            0.00562699418514967,
            -0.07807988673448563,
            -0.05461069568991661,
            -0.01866084896028042,
            -0.027091436088085175,
            0.03529691323637962,
            -0.03000548668205738,
            0.026104839518666267,
            -0.018051866441965103,
            -0.11813538521528244,
            -0.0677204355597496,
            -0.08600522577762604,
            -0.09718944132328033,
            -0.11555993556976318,
            -0.06659740954637527,
            -0.05586545914411545,
            -0.017553383484482765,
            -0.06722534447908401,
            -0.07909459620714188,
            -0.1110965833067894,
            -0.08496703207492828,
            -0.07123583555221558,
            -0.12240149080753326,
            -0.1283433586359024,
            -0.06533609330654144,
            -0.1047363355755806,
            -0.06670106947422028,
            -0.0007909810519777238,
            0.009641043841838837,
            -0.01774301752448082,
            0.02370569109916687,
            0.02170950174331665,
            -0.021691178902983665,
            0.02995210513472557,
            -0.024137472733855247,
            -0.015860630199313164,
            -0.002151795430108905,
            -0.05660005286335945,
            -0.02858930453658104,
            -0.02070278860628605,
            -0.0752481073141098,
            -0.049207743257284164,
            -0.055679190903902054,
            -0.007043077610433102,
            -0.010595664381980896,
            -0.05079658702015877,
            -0.03981509059667587,
            -0.05237104371190071,
            -0.022689681500196457,
            -0.10140106827020645,
            -0.07706647366285324,
            -0.10595833510160446,
            -0.03600926697254181,
            -0.0739167183637619,
            -0.08555078506469727,
            -0.02960461564362049,
            0.0010883547365665436,
            0.025014560669660568,
            -0.019264349713921547,
            -0.017413102090358734
        ],
        [
            0.018922656774520874,
            0.0038922838866710663,
            -0.02634660340845585,
            0.03258480504155159,
            -0.004745211452245712,
            0.035257790237665176,
            -0.018044374883174896,
            0.016183163970708847,
            -0.005882510915398598,
            -0.013554440811276436,
            -0.016918353736400604,
            0.021044395864009857,
            0.005614969413727522,
            0.054871175438165665,
            -0.012870559468865395,
            0.033496368676424026,
            0.02720552310347557,
            0.004873465746641159,
            0.03253054991364479,
            -0.013750191777944565,
            -0.029918156564235687,
            0.018262792378664017,
            -0.017508354038000107,
            0.005511369556188583,
            -0.032780732959508896,
            0.004880279302597046,
            0.005746033042669296,
            -0.026991035789251328,
            -0.0330907367169857,
            -0.007308363914489746,
            0.010060586035251617,
            -0.029766496270895004,
            0.031166333705186844,
            0.060273427516222,
            0.08926954120397568,
            0.09009059518575668,
            0.07183059304952621,
            0.0373559333384037,
            0.043639861047267914,
            0.1400517225265503,
            0.09172490239143372,
            0.058906178921461105,
            0.016076987609267235,
            0.1058255210518837,
            0.0665326938033104,
            0.045004431158304214,
            0.08129047602415085,
            0.030844612047076225,
            0.04397609829902649,
            0.039862364530563354,
            0.007402112241834402,
            0.07207245379686356,
            0.025989793241024017,
            0.015420675277709961,
            -0.016197627410292625,
            -0.017068590968847275,
            0.03112226352095604,
            0.014905083924531937,
            -0.01367166731506586,
            0.03966011852025986,
            0.025687959045171738,
            0.05788351222872734,
            0.051803749054670334,
            0.05645976960659027,
            0.09665947407484055,
            0.052315883338451385,
            0.13271668553352356,
            0.1329886019229889,
            0.1072993353009224,
            0.06707071512937546,
            0.1135176569223404,
            0.07654586434364319,
            0.09993400424718857,
            0.05972042307257652,
            0.0012979856692254543,
            0.030183101072907448,
            0.027333110570907593,
            0.025762183591723442,
            0.1097731962800026,
            0.08457642793655396,
            0.02405264414846897,
            0.02251526527106762,
            -0.021115951240062714,
            0.033327918499708176,
            0.027194593101739883,
            -0.03056127391755581,
            0.005705630406737328,
            0.03877131640911102,
            0.04747113958001137,
            -0.06299886107444763,
            -0.023633843287825584,
            -0.0002049217146122828,
            -0.007824637927114964,
            0.005367238074541092,
            0.04526630789041519,
            -0.005484177265316248,
            0.03830373287200928,
            0.024351369589567184,
            0.06524394452571869,
            0.06765827536582947,
            0.026118233799934387,
            0.06158125400543213,
            0.02894086018204689,
            0.07573771476745605,
            0.07382240146398544,
            0.08245274424552917,
            0.14163780212402344,
            0.09149613231420517,
            0.0516558475792408,
            0.017629534006118774,
            -0.004228344187140465,
            0.027152422815561295,
            0.02595832571387291,
            -0.022173501551151276,
            -0.030997619032859802,
            -0.010334269143640995,
            -0.09322609007358551,
            -0.11409509927034378,
            -0.09833145886659622,
            -0.07958460599184036,
            -0.04204106330871582,
            0.001381133683025837,
            -0.019298261031508446,
            0.040577422827482224,
            0.04148552194237709,
            0.02986116148531437,
            0.021558107808232307,
            0.07908155769109726,
            0.011057905852794647,
            0.07946956902742386,
            0.06208096817135811,
            -0.0037172541487962008,
            0.02637377753853798,
            0.09312844276428223,
            0.13030004501342773,
            0.09293818473815918,
            0.030914874747395515,
            0.03034812957048416,
            0.03426855802536011,
            -0.019675616174936295,
            0.015536956489086151,
            -0.012816064059734344,
            -0.03971479460597038,
            -0.05592472851276398,
            -0.08552251756191254,
            -0.1425757259130478,
            -0.10472957789897919,
            -0.06180010735988617,
            -0.015298619866371155,
            -0.0077974204905331135,
            0.05008402839303017,
            0.0467427559196949,
            0.052583787590265274,
            0.023390091955661774,
            0.03194476664066315,
            0.0029478028882294893,
            0.01864142343401909,
            0.02087806910276413,
            0.018961166962981224,
            -0.00865323655307293,
            0.04561212286353111,
            0.04880785569548607,
            0.0860113725066185,
            0.033604517579078674,
            0.08364786207675934,
            0.03796626999974251,
            0.0699181854724884,
            0.04864764213562012,
            4.9017369747161865e-05,
            -0.00966460071504116,
            0.034440118819475174,
            -0.0795719251036644,
            -0.11876436322927475,
            -0.09030723571777344,
            -0.05757186934351921,
            -0.009910901077091694,
            0.05122723430395126,
            0.04551713913679123,
            0.043789591640233994,
            0.05859115347266197,
            0.08734679222106934,
            0.0451655276119709,
            0.032726626843214035,
            -0.016992507502436638,
            -0.031189709901809692,
            -0.014046491123735905,
            0.04463706165552139,
            0.02685515582561493,
            0.016111085191369057,
            0.033338889479637146,
            0.03905439004302025,
            0.0587163046002388,
            0.09968804568052292,
            0.07488910108804703,
            0.009561469778418541,
            0.01162637583911419,
            -0.0001229606568813324,
            0.0012461480218917131,
            -0.047684431076049805,
            -0.12361990660429001,
            -0.18183861672878265,
            -0.07381615787744522,
            -0.021924180909991264,
            0.05224526673555374,
            0.07446780800819397,
            0.0864773765206337,
            0.1251998245716095,
            0.12504392862319946,
            0.061969272792339325,
            0.021251032128930092,
            -0.002455836394801736,
            -0.04283757880330086,
            -0.03619937226176262,
            0.003819186007604003,
            -0.022415677085518837,
            -0.02866971679031849,
            -0.06783905625343323,
            -0.04148348420858383,
            -0.07099760323762894,
            0.005978703964501619,
            0.029804831370711327,
            0.06941636651754379,
            0.023596948012709618,
            -0.01424591988325119,
            0.04976382479071617,
            0.022744707763195038,
            0.03570815920829773,
            -0.1318354308605194,
            -0.1900692731142044,
            -0.10379916429519653,
            -0.03715793415904045,
            -0.030121568590402603,
            0.07631471753120422,
            0.07624676078557968,
            0.10677018761634827,
            0.12533250451087952,
            0.06214366853237152,
            -0.009199266321957111,
            -0.06464883685112,
            -0.10155756026506424,
            -0.14129912853240967,
            -0.08015286922454834,
            -0.05411481484770775,
            -0.0826568752527237,
            -0.08475487679243088,
            -0.05864611640572548,
            -0.10855162143707275,
            -0.06458918750286102,
            0.048828478902578354,
            0.05517296865582466,
            -0.0337565541267395,
            -0.041697412729263306,
            0.02975555881857872,
            0.014192085713148117,
            0.07119465619325638,
            -0.0889115259051323,
            -0.09250502288341522,
            -0.12118807435035706,
            -0.023073747754096985,
            0.036219410598278046,
            0.09360390901565552,
            0.0973610058426857,
            0.157538503408432,
            0.17371277511119843,
            0.06635576486587524,
            -0.035352516919374466,
            -0.21249213814735413,
            -0.24134881794452667,
            -0.18283575773239136,
            -0.13548409938812256,
            -0.09253204613924026,
            -0.1108226329088211,
            -0.11594447493553162,
            -0.09240875393152237,
            -0.1315547078847885,
            -0.08907512575387955,
            0.04483916983008385,
            0.08014795929193497,
            0.05227670073509216,
            0.06766015291213989,
            -0.028896847739815712,
            0.04869653657078743,
            0.043702948838472366,
            -0.05353608727455139,
            -0.09944172203540802,
            -0.04120537266135216,
            -0.0431879460811615,
            0.04637423902750015,
            0.12165996432304382,
            0.12979508936405182,
            0.18621282279491425,
            0.11044669151306152,
            0.060341157019138336,
            -0.08239231258630753,
            -0.205755352973938,
            -0.2477327585220337,
            -0.18470290303230286,
            -0.09812140464782715,
            -0.07412036508321762,
            -0.16127577424049377,
            -0.10246766358613968,
            -0.11299165338277817,
            -0.12051917612552643,
            -0.10099121928215027,
            0.034169234335422516,
            0.13844537734985352,
            0.05246993154287338,
            -0.0528281033039093,
            0.051397740840911865,
            -0.0019255385268479586,
            0.001745019224472344,
            -0.11930143088102341,
            -0.031402185559272766,
            -0.02776903286576271,
            0.05322687700390816,
            0.15116673707962036,
            0.16713504493236542,
            0.16466668248176575,
            0.12273290008306503,
            0.08805910497903824,
            0.003933286294341087,
            -0.06747059524059296,
            -0.21147839725017548,
            -0.11311884224414825,
            -0.00895494781434536,
            -0.013359297066926956,
            0.0033815265633165836,
            -0.07591336965560913,
            -0.04705014079809189,
            -0.04459463432431221,
            -0.0704294815659523,
            -0.018695414066314697,
            0.027361849322915077,
            0.010133793577551842,
            -0.04682864248752594,
            -0.05272471159696579,
            0.03624364361166954,
            -0.004352132324129343,
            0.013401079922914505,
            -0.0802219957113266,
            -0.011916330084204674,
            0.03550140559673309,
            0.13008539378643036,
            0.1595015674829483,
            0.15518538653850555,
            0.12012184411287308,
            0.06763246655464172,
            0.05687328428030014,
            -0.002709008986130357,
            -0.12516801059246063,
            -0.14123672246932983,
            -0.07188086211681366,
            -0.0056240130215883255,
            0.03911656513810158,
            0.05750755965709686,
            -0.002001445973291993,
            0.05217539519071579,
            0.02227644808590412,
            0.043699026107788086,
            0.025372860953211784,
            0.02414434589445591,
            -0.09386935085058212,
            -0.048244889825582504,
            -0.04480801522731781,
            0.029865700751543045,
            0.027633540332317352,
            0.034804485738277435,
            -0.01888946443796158,
            0.045266181230545044,
            0.1474900096654892,
            0.14871396124362946,
            0.1974017322063446,
            0.11053041368722916,
            0.0911165177822113,
            0.0880092903971672,
            0.009412293322384357,
            -0.07063046842813492,
            -0.10303211957216263,
            -0.11330489069223404,
            -0.06338080763816833,
            -0.03239310532808304,
            0.02964276447892189,
            0.03081195056438446,
            0.015788080170750618,
            0.07388141751289368,
            0.07351601123809814,
            0.11635158210992813,
            0.09486372023820877,
            0.070313960313797,
            -0.1149740219116211,
            -0.1653037816286087,
            -0.07855338603258133,
            0.04172447323799133,
            -0.016403472051024437,
            0.027180712670087814,
            -0.009143529459834099,
            0.08456975221633911,
            0.1221296638250351,
            0.12600377202033997,
            0.14970256388187408,
            0.13515552878379822,
            0.14673162996768951,
            0.05421891808509827,
            0.040916912257671356,
            -0.034220751374959946,
            -0.11800939589738846,
            -0.12689222395420074,
            -0.06498601287603378,
            -0.00552874943241477,
            0.020591801032423973,
            -0.010429304093122482,
            0.07345998287200928,
            0.06564801931381226,
            0.05378202721476555,
            0.09919897466897964,
            0.08036699146032333,
            0.041801806539297104,
            -0.10705851018428802,
            -0.11302296072244644,
            -0.007664794102311134,
            0.034476395696401596,
            0.007550601847469807,
            0.03346642106771469,
            -0.10087477415800095,
            -0.019506659358739853,
            -0.005771160591393709,
            0.06230230629444122,
            0.1488536298274994,
            0.15522617101669312,
            0.10940961539745331,
            0.12413844466209412,
            0.04484720900654793,
            -0.05855342373251915,
            -0.10477378964424133,
            -0.13999684154987335,
            -0.09551757574081421,
            -0.05410536006093025,
            -0.043473947793245316,
            0.01989227533340454,
            0.06536249071359634,
            0.03221762552857399,
            0.0702349841594696,
            0.06568384170532227,
            0.07911072671413422,
            0.017473526298999786,
            -0.09093455970287323,
            -0.15143749117851257,
            -0.0756569504737854,
            -0.02900182455778122,
            -0.01685865968465805,
            -0.07035420835018158,
            -0.09067989140748978,
            -0.10250773280858994,
            -0.008716551586985588,
            -0.01794959232211113,
            0.08282765001058578,
            0.09653013944625854,
            0.09826027601957321,
            0.05752759054303169,
            0.07494236528873444,
            -0.08058933168649673,
            -0.10268077999353409,
            -0.10222279280424118,
            -0.05914130061864853,
            -0.08399920910596848,
            -0.049894072115421295,
            0.07231611013412476,
            0.06082209199666977,
            0.05787369981408119,
            0.059704624116420746,
            0.02460467629134655,
            0.012356880120933056,
            -0.04821572080254555,
            -0.0812079906463623,
            -0.13321779668331146,
            -0.0391179583966732,
            -0.007157895714044571,
            -0.00839998945593834,
            -0.05441496893763542,
            -0.09629205614328384,
            -0.12474317848682404,
            -0.04544765129685402,
            -0.00676720030605793,
            0.04390991851687431,
            0.046392008662223816,
            0.08896687626838684,
            0.09713481366634369,
            0.0210722666233778,
            -0.04563802480697632,
            -0.14018476009368896,
            -0.12122505158185959,
            -0.05758635327219963,
            -0.0661623403429985,
            0.03459937497973442,
            0.056397683918476105,
            0.050124991685152054,
            0.08437240123748779,
            0.018061915412545204,
            0.04348203167319298,
            -0.02026834338903427,
            -0.024092618376016617,
            -0.11667143553495407,
            -0.11152016371488571,
            -0.08626420050859451,
            -0.0001287182531086728,
            -0.0391610749065876,
            -0.027887092903256416,
            -0.06056647375226021,
            -0.057358622550964355,
            -0.09137219935655594,
            -0.06958280503749847,
            -0.011196102015674114,
            0.02516958862543106,
            0.030862975865602493,
            0.06730066239833832,
            -0.03372163698077202,
            -0.07159576565027237,
            -0.17192448675632477,
            -0.07755904644727707,
            -0.059213146567344666,
            0.03479709476232529,
            0.028476500883698463,
            0.07208338379859924,
            0.07968058437108994,
            0.0805232897400856,
            0.019820600748062134,
            -0.0195933785289526,
            0.014883044175803661,
            -0.042088061571121216,
            -0.06195102632045746,
            -0.048834577202796936,
            -0.08696428686380386,
            0.02063145488500595,
            0.011237629689276218,
            0.007609057705849409,
            -0.025473305955529213,
            -0.05798277631402016,
            -0.06233695149421692,
            -0.07196532189846039,
            -0.08658269047737122,
            0.01620282232761383,
            -0.029132775962352753,
            -0.028191566467285156,
            -0.010128157213330269,
            -0.1092613935470581,
            -0.09067085385322571,
            -0.04874665290117264,
            0.0035362388007342815,
            0.03799204155802727,
            0.030550187453627586,
            0.06083403155207634,
            0.07894999533891678,
            0.05175293982028961,
            0.039971545338630676,
            -0.0108527522534132,
            0.02033490501344204,
            0.06107267737388611,
            -0.05268554762005806,
            -0.06797473877668381,
            -0.024363264441490173,
            -0.011386334896087646,
            -0.017850492149591446,
            0.04126973822712898,
            -0.022635791450738907,
            -0.04129432886838913,
            -0.09532257914543152,
            -0.0662447065114975,
            -0.10161621123552322,
            -0.07412391901016235,
            -0.032414425164461136,
            -0.03356907516717911,
            0.010168088600039482,
            0.0013908307300880551,
            -0.03274450823664665,
            0.03538668155670166,
            0.05062665417790413,
            0.1035563126206398,
            0.10438379645347595,
            0.09194234758615494,
            0.03682815283536911,
            -0.005399296060204506,
            0.023341253399848938,
            -0.01834341697394848,
            -0.004761191084980965,
            0.002720359480008483,
            -0.017287572845816612,
            -0.01087129209190607,
            0.009496605023741722,
            -0.03481176123023033,
            -0.05860425531864166,
            -0.035021957010030746,
            -0.03231273218989372,
            0.00828731432557106,
            -0.0596449114382267,
            -0.11066054552793503,
            -0.12036412954330444,
            -0.061451468616724014,
            -0.05377676337957382,
            -0.0444256067276001,
            0.022764110937714577,
            0.0433303602039814,
            -0.006441440433263779,
            0.09584398567676544,
            0.13812582194805145,
            0.1313581019639969,
            0.10459861159324646,
            0.09466113895177841,
            0.04982366785407066,
            0.08661279082298279,
            0.05408276244997978,
            0.07073652744293213,
            0.037658851593732834,
            0.03266548365354538,
            0.002833209466189146,
            0.034291159361600876,
            0.03747114539146423,
            -0.03571145236492157,
            0.022692088037729263,
            -0.045632097870111465,
            -0.034234192222356796,
            -0.023685099557042122,
            -0.04482133314013481,
            -0.11675414443016052,
            -0.07550720870494843,
            -0.10856983065605164,
            -0.08075767010450363,
            -0.06568025052547455,
            -0.015479856170713902,
            0.00026047276332974434,
            0.04868481308221817,
            0.12621042132377625,
            0.13679388165473938,
            0.14369602501392365,
            0.10910304635763168,
            0.09926418215036392,
            0.0331391878426075,
            0.032380178570747375,
            0.047560930252075195,
            0.04723447933793068,
            0.06648453325033188,
            0.043288037180900574,
            -0.02593914233148098,
            0.03605226054787636,
            0.021054208278656006,
            0.01697208359837532,
            0.01189221441745758,
            -0.07109560817480087,
            -0.0012508087093010545,
            -0.06177853047847748,
            -0.006866138894110918,
            -0.06702675670385361,
            -0.0816655084490776,
            -0.07214287668466568,
            -0.09463215619325638,
            -0.037629641592502594,
            0.0057928916066884995,
            -0.012317698448896408,
            0.04744303226470947,
            0.1240994930267334,
            0.14102207124233246,
            0.06444079428911209,
            0.05545734986662865,
            0.062300488352775574,
            0.03701823949813843,
            0.041612979024648666,
            0.0584816038608551,
            0.0369211807847023,
            0.01635698415338993,
            -0.01731289178133011,
            0.004575557541102171,
            0.01559528149664402,
            -0.0238754004240036,
            0.0015723779797554016,
            0.024926841259002686,
            0.01820770837366581,
            0.024944936856627464,
            -0.051284629851579666,
            -0.020303765311837196,
            -0.058574553579092026,
            -0.03766179084777832,
            -0.056050922721624374,
            -0.03271276503801346,
            -0.031428586691617966,
            0.002146671526134014,
            -0.0025676731020212173,
            0.026183225214481354,
            0.033751264214515686,
            0.07707969844341278,
            0.06046536564826965,
            0.024257106706500053,
            0.05227319151163101,
            0.07625501602888107,
            0.021466528996825218,
            0.04250019043684006,
            0.09393525123596191,
            0.015504332259297371,
            -0.012057610787451267,
            -0.06023431941866875,
            0.007129782810807228,
            -0.02698233351111412,
            -0.005751589313149452,
            0.023967761546373367,
            -0.021072333678603172,
            0.04343433305621147,
            0.043163277208805084,
            -0.024525661021471024,
            -0.042492810636758804,
            -0.07602659612894058,
            -0.06253699213266373,
            -0.04051541909575462,
            -0.07810612767934799,
            -0.02638300508260727,
            -0.00702738156542182,
            0.020800692960619926,
            0.024443309754133224,
            0.03129562363028526,
            0.07033621519804001,
            0.05516962707042694,
            0.07974017411470413,
            0.04965879023075104,
            0.08367091417312622,
            0.13738395273685455,
            0.13215762376785278,
            0.11648394167423248,
            0.05671615153551102,
            0.03699707239866257,
            -0.005850324407219887,
            0.0056357719004154205,
            -0.02008412592113018,
            0.008383259177207947,
            -0.02198972925543785,
            0.0003713408368639648,
            0.0048658777959644794,
            -0.04352691024541855,
            -0.08213438093662262,
            -0.08656768500804901,
            -0.0473867692053318,
            -0.017530187964439392,
            -0.011138714849948883,
            -0.010106637142598629,
            0.07864095270633698,
            0.011164314113557339,
            -0.022477786988019943,
            0.02989047020673752,
            0.02399822697043419,
            0.03388313204050064,
            -0.013203629292547703,
            0.04006585106253624,
            0.06244213134050369,
            0.03028034418821335,
            0.06814613938331604,
            0.004980163648724556,
            -0.03079303540289402,
            0.039216723293066025,
            0.022227104753255844,
            0.021760698407888412,
            -0.010435527190566063,
            0.013450764119625092,
            0.01751844957470894,
            -0.028276968747377396,
            -0.031012259423732758,
            -0.007291428279131651,
            0.012691430747509003,
            -0.04510335624217987,
            -0.03321117162704468,
            0.03753681480884552,
            -0.0032037298660725355,
            0.030945859849452972,
            0.005917727947235107,
            0.030428675934672356,
            -0.04138198867440224,
            -0.03104959800839424,
            0.015768365934491158,
            0.02198118343949318,
            -0.035026442259550095,
            0.018745282664895058,
            0.02576305717229843,
            -0.06890570372343063,
            0.032909467816352844,
            -0.0020334054715931416,
            -0.02560456469655037,
            0.01281467080116272,
            0.03354524448513985,
            -0.015729108825325966
        ],
        [
            -0.019727788865566254,
            -0.010021461173892021,
            -0.03294156491756439,
            -0.021478496491909027,
            0.0033922120928764343,
            0.019463829696178436,
            -0.011687487363815308,
            -0.03506378084421158,
            -0.011117424815893173,
            -0.012317802757024765,
            0.021697193384170532,
            -0.005331473425030708,
            -0.027967050671577454,
            -0.018738586455583572,
            0.007163681089878082,
            0.02711973711848259,
            0.018330708146095276,
            0.03505779430270195,
            -0.016218151897192,
            -0.009773002937436104,
            -0.030513709411025047,
            -0.00691036693751812,
            -0.007923616096377373,
            0.0017037391662597656,
            -0.005164679139852524,
            0.02957170084118843,
            -0.016622284427285194,
            -0.011659538373351097,
            -0.003184523433446884,
            -0.02131381258368492,
            0.01256389170885086,
            -0.028131907805800438,
            -0.0034020841121673584,
            0.032408446073532104,
            0.024279657751321793,
            -0.013700809329748154,
            -0.00494382856413722,
            0.005827523302286863,
            0.016655797138810158,
            -0.03186984360218048,
            0.026039665564894676,
            -0.004515119828283787,
            -0.10133641958236694,
            -0.07063911855220795,
            -0.07107903063297272,
            -0.043014511466026306,
            -0.006245728116482496,
            -0.05450072139501572,
            -0.012880354188382626,
            -0.023801464587450027,
            0.027791570872068405,
            -0.018918775022029877,
            0.026395097374916077,
            0.002759486436843872,
            -0.005859319120645523,
            -0.020999424159526825,
            -0.0077173542231321335,
            -0.010080333799123764,
            0.0033797137439250946,
            -0.04729200899600983,
            0.005006739404052496,
            0.006128112319856882,
            -0.05419157072901726,
            -0.07178061455488205,
            -0.04257472977042198,
            -0.030106201767921448,
            -0.053920481353998184,
            -0.12360446155071259,
            -0.08958199620246887,
            -0.02329723723232746,
            -0.11819758266210556,
            -0.0710073933005333,
            -0.028294513002038002,
            -0.012716368772089481,
            -0.03436518833041191,
            0.03623993322253227,
            -0.01501691434532404,
            -0.010197780095040798,
            0.038882095366716385,
            -0.005646186880767345,
            -0.00795842707157135,
            -0.028748270124197006,
            0.017103318125009537,
            0.008759073913097382,
            0.020614713430404663,
            -0.016970256343483925,
            -0.008279744535684586,
            -0.034171756356954575,
            -0.03894719481468201,
            -0.04040435701608658,
            -0.057133354246616364,
            -0.037776846438646317,
            -0.010184790939092636,
            -0.0039033396169543266,
            -0.02524796687066555,
            -0.02483345754444599,
            0.00689096050336957,
            0.062255844473838806,
            0.054036106914281845,
            0.0929979756474495,
            0.06098349019885063,
            0.0037987609393894672,
            -0.010699888691306114,
            0.011218358762562275,
            0.02085217833518982,
            0.03151850774884224,
            -0.0778501108288765,
            -0.03583358973264694,
            0.019893517717719078,
            -0.020306266844272614,
            -0.01460935641080141,
            -0.005159102380275726,
            0.006755366921424866,
            0.010523088276386261,
            -0.012188929133117199,
            -0.009065743535757065,
            -0.08047966659069061,
            -0.04086579754948616,
            -0.07226364314556122,
            -0.00235344422981143,
            -0.011534946039319038,
            0.06378833949565887,
            0.08063910901546478,
            0.04238814115524292,
            0.08493102341890335,
            0.08778230845928192,
            0.08752812445163727,
            0.08606091141700745,
            0.028516896069049835,
            0.0009578195167705417,
            0.0524461455643177,
            0.02571224421262741,
            -0.01620529778301716,
            0.05924379825592041,
            0.03597012907266617,
            -0.013559005223214626,
            0.04109702631831169,
            0.048027459532022476,
            0.058717016130685806,
            -0.028215741738677025,
            0.006360698491334915,
            0.020847193896770477,
            0.009384454227983952,
            -0.039541639387607574,
            -0.07886034995317459,
            -0.002210088772699237,
            0.006175129674375057,
            0.0017091635381802917,
            0.0401836559176445,
            0.021227648481726646,
            0.033057138323783875,
            -0.01776406541466713,
            0.04543126001954079,
            0.04396871104836464,
            0.0716417208313942,
            0.07727082073688507,
            0.018044956028461456,
            0.010399684309959412,
            0.07264639437198639,
            0.006689447909593582,
            0.05457405745983124,
            0.037774018943309784,
            0.02545473538339138,
            -0.0026088873855769634,
            0.06481432169675827,
            0.07769922912120819,
            0.053005702793598175,
            0.04830252379179001,
            0.008089721202850342,
            0.02137514017522335,
            0.06521771848201752,
            -0.013603960163891315,
            -0.02645624615252018,
            0.03516757860779762,
            0.0454343780875206,
            0.01982121169567108,
            0.056693609803915024,
            -0.004359696991741657,
            -0.004607926122844219,
            0.027338488027453423,
            0.03872239962220192,
            0.049323830753564835,
            0.05447764694690704,
            0.03127367049455643,
            -0.02130778320133686,
            -0.001403709757141769,
            0.046778883785009384,
            -0.02396395057439804,
            0.014954110607504845,
            0.027197645977139473,
            0.025835376232862473,
            -0.025272754952311516,
            0.01975729689002037,
            0.038567692041397095,
            0.05518128722906113,
            0.05002591013908386,
            0.0414949469268322,
            0.025481531396508217,
            0.02209542691707611,
            0.05377385765314102,
            -0.018716707825660706,
            0.02363620139658451,
            0.07440263777971268,
            0.03471909463405609,
            0.0006670698057860136,
            0.04319145902991295,
            0.04210149124264717,
            0.0592413954436779,
            0.07311078906059265,
            0.07422856241464615,
            0.05741452798247337,
            0.020736070349812508,
            0.006841020192950964,
            0.053934477269649506,
            0.009560885839164257,
            -0.0011734622530639172,
            0.03391427919268608,
            -0.006660044193267822,
            -0.027730312198400497,
            -0.01222932618111372,
            0.018020927906036377,
            0.040366385132074356,
            -0.0004831774567719549,
            0.10440287739038467,
            0.02856779657304287,
            0.039732176810503006,
            0.047082606703042984,
            0.02287687361240387,
            0.003850244451314211,
            0.029321715235710144,
            0.0471804253757,
            0.055783141404390335,
            0.0878564640879631,
            0.057419151067733765,
            0.06206754967570305,
            0.10352600365877151,
            0.12406660616397858,
            0.14355634152889252,
            0.12001754343509674,
            0.02869836427271366,
            0.008844432421028614,
            -0.01650581695139408,
            0.006407746113836765,
            -0.0585649274289608,
            -0.0024306627456098795,
            -0.01573537290096283,
            -0.08260155469179153,
            -0.04520145058631897,
            0.016192877665162086,
            0.03211114928126335,
            -0.03899955749511719,
            0.06194112449884415,
            -0.00599175039678812,
            0.0652809888124466,
            0.045970603823661804,
            0.06764865666627884,
            0.02220892533659935,
            0.04179731756448746,
            0.005492617841809988,
            0.04173588380217552,
            0.046745266765356064,
            0.047269973903894424,
            0.08361406624317169,
            0.19353140890598297,
            0.2104753702878952,
            0.23003825545310974,
            0.15410904586315155,
            0.04637596756219864,
            -0.04975726455450058,
            -0.05863451957702637,
            -0.03490243852138519,
            -0.03208262100815773,
            -0.07903202623128891,
            -0.05956451594829559,
            -0.052994441241025925,
            0.0024659764021635056,
            -0.005064447410404682,
            0.08160734176635742,
            0.008010167628526688,
            0.04733118787407875,
            0.009417789056897163,
            0.0660659521818161,
            0.10273361206054688,
            0.06370687484741211,
            0.07152434438467026,
            0.040691912174224854,
            0.04025895893573761,
            0.04360394552350044,
            0.10572365671396255,
            0.14684124290943146,
            0.12293615192174911,
            0.22343648970127106,
            0.16343113780021667,
            0.22427332401275635,
            0.1059955283999443,
            -0.01637667417526245,
            -0.07541096210479736,
            -0.05665849149227142,
            -0.06848946213722229,
            -0.0538068525493145,
            -0.04972795397043228,
            -0.03424547240138054,
            -0.0314643457531929,
            -0.09054527431726456,
            -0.028279593214392662,
            0.04552740231156349,
            0.1692352294921875,
            0.07472057640552521,
            0.06459040194749832,
            0.10479126125574112,
            0.15281008183956146,
            0.0721653401851654,
            0.05380406603217125,
            0.031341906636953354,
            0.03942882642149925,
            0.07416234165430069,
            0.05418985337018967,
            0.12361913919448853,
            0.1103694811463356,
            0.18384385108947754,
            0.12378039211034775,
            0.09949910640716553,
            -0.008714849129319191,
            -0.07921993732452393,
            -0.11353826522827148,
            0.0024820270482450724,
            0.025702260434627533,
            -0.013902559876441956,
            -0.05083297938108444,
            -0.011475251987576485,
            -0.032710447907447815,
            -0.08440114557743073,
            -0.032067492604255676,
            0.06396590173244476,
            0.11575675010681152,
            0.030881254002451897,
            0.046575892716646194,
            0.04126320779323578,
            0.08181043714284897,
            0.045002903789281845,
            0.10341998934745789,
            0.04405810311436653,
            0.07962419092655182,
            0.11687021702528,
            0.07235808670520782,
            0.047020383179187775,
            0.10510887205600739,
            0.05055764690041542,
            0.020005300641059875,
            -0.04449925944209099,
            -0.15045058727264404,
            -0.1540529578924179,
            -0.09962461143732071,
            -0.029714403674006462,
            0.015485509298741817,
            0.002305512549355626,
            -0.003719563828781247,
            -0.03375347703695297,
            -0.03298778831958771,
            -0.005418634042143822,
            0.009624768048524857,
            0.031549979001283646,
            0.015276280231773853,
            -0.013439256697893143,
            -0.029771167784929276,
            0.04590019956231117,
            0.11561448127031326,
            0.03381141275167465,
            0.05514245852828026,
            0.08789177983999252,
            0.07171580940485,
            0.05380324274301529,
            0.05027681216597557,
            0.023885253816843033,
            -0.025691570714116096,
            -0.09203190356492996,
            -0.09022484719753265,
            -0.1422680914402008,
            -0.14851221442222595,
            -0.14752286672592163,
            -0.08711928129196167,
            -0.06576860696077347,
            -0.01907101832330227,
            -0.03752000629901886,
            -0.005128157790750265,
            0.048565804958343506,
            0.026523509994149208,
            0.009924938902258873,
            0.039094895124435425,
            -0.03693638741970062,
            0.004168032668530941,
            -0.05878325179219246,
            0.00918800849467516,
            0.02110728621482849,
            0.09478811919689178,
            0.027806542813777924,
            0.016837097704410553,
            0.08100102841854095,
            0.0296088308095932,
            0.03764650598168373,
            0.020352376624941826,
            -0.003487163921818137,
            -0.04265855997800827,
            -0.10056346654891968,
            -0.10048883408308029,
            -0.17025955021381378,
            -0.08702362328767776,
            -0.13187116384506226,
            -0.08827834576368332,
            -0.06139146909117699,
            -0.014432546682655811,
            0.02280871942639351,
            0.06083746254444122,
            0.09376908093690872,
            0.10691197961568832,
            0.10185244679450989,
            0.11898815631866455,
            -0.044754642993211746,
            0.04067779704928398,
            0.0044404808431863785,
            0.017912153154611588,
            0.03705098107457161,
            0.03473628684878349,
            0.012080849148333073,
            0.028529765084385872,
            0.04339516535401344,
            0.028449121862649918,
            0.0030498234555125237,
            -0.08102423697710037,
            -0.07614879310131073,
            -0.054345376789569855,
            -0.08312883973121643,
            -0.06054507568478584,
            -0.14524638652801514,
            -0.1432649791240692,
            -0.07955403625965118,
            -0.07170211523771286,
            -0.04946142062544823,
            0.04477553069591522,
            0.013040660880506039,
            0.07779216021299362,
            0.12217119336128235,
            0.1310679167509079,
            0.12815000116825104,
            0.14111389219760895,
            -0.030343566089868546,
            0.04214728996157646,
            -0.059999462217092514,
            0.020270735025405884,
            0.04241475835442543,
            0.04422905296087265,
            -0.03394385054707527,
            0.008649636059999466,
            -0.01887594535946846,
            -0.09254046529531479,
            -0.08196113258600235,
            -0.10733340680599213,
            -0.10802480578422546,
            -0.09301584959030151,
            -0.08423253893852234,
            -0.10684309154748917,
            -0.16819016635417938,
            -0.13201762735843658,
            -0.10968049615621567,
            -0.046598609536886215,
            -0.05662640184164047,
            0.05700468271970749,
            0.0392988920211792,
            0.05201622098684311,
            0.1089751347899437,
            0.09448088705539703,
            0.03602583333849907,
            0.09881184995174408,
            -0.025742894038558006,
            0.02907189354300499,
            0.0005415005143731833,
            0.02891896292567253,
            0.03242550790309906,
            -0.057808998972177505,
            -0.0117129972204566,
            -0.03880404308438301,
            -0.049964163452386856,
            -0.097073495388031,
            -0.1469593346118927,
            -0.12641267478466034,
            -0.08318106085062027,
            -0.05082482844591141,
            -0.11008790880441666,
            -0.201893612742424,
            -0.2524755597114563,
            -0.11068817228078842,
            -0.05156092345714569,
            -0.011450114659965038,
            0.056166719645261765,
            0.053621210157871246,
            0.07561247050762177,
            0.04390907287597656,
            0.02996719628572464,
            0.04324878379702568,
            0.02370249107480049,
            0.05901681259274483,
            -0.030812449753284454,
            0.019421325996518135,
            -0.01941659115254879,
            0.0026528441812843084,
            -0.021024279296398163,
            0.0065814726985991,
            0.05417845398187637,
            -0.012789135798811913,
            -0.08003821223974228,
            -0.11951220035552979,
            -0.15624481439590454,
            -0.14020371437072754,
            -0.15000933408737183,
            -0.16927137970924377,
            -0.18609319627285004,
            -0.29808229207992554,
            -0.28341272473335266,
            -0.06283807009458542,
            0.01840970478951931,
            0.06873875111341476,
            0.07986684888601303,
            0.0716647356748581,
            0.009273316711187363,
            0.04026457294821739,
            0.08409897238016129,
            0.010898741893470287,
            -0.006545855198055506,
            -0.046135712414979935,
            0.0002388994034845382,
            0.017585404217243195,
            -0.04648768529295921,
            0.02846061810851097,
            0.0027737547643482685,
            0.012289084494113922,
            0.028258783742785454,
            -0.013418087735772133,
            -0.07840113341808319,
            -0.12793052196502686,
            -0.15318207442760468,
            -0.1279357373714447,
            -0.1749405860900879,
            -0.1900090128183365,
            -0.18343335390090942,
            -0.2312334179878235,
            -0.17795075476169586,
            0.0540488101541996,
            0.12296107411384583,
            0.12845918536186218,
            0.08705921471118927,
            0.0642181858420372,
            0.06565921008586884,
            0.0608307309448719,
            0.01595963165163994,
            -0.004860744345933199,
            -0.020766068249940872,
            0.06169693171977997,
            0.014628500677645206,
            -0.040139731019735336,
            -0.03713596612215042,
            0.015549391508102417,
            -0.014024446718394756,
            0.001097064814530313,
            0.03797028958797455,
            -0.014993385411798954,
            -0.013159044086933136,
            -0.03513134643435478,
            -0.10383539646863937,
            -0.023770613595843315,
            -0.07149673998355865,
            -0.14577603340148926,
            -0.11112543195486069,
            -0.10297053307294846,
            0.036713261157274246,
            0.10702195018529892,
            0.20123259723186493,
            0.12813133001327515,
            0.12774397432804108,
            0.06154955178499222,
            -0.003504236927255988,
            0.007403003983199596,
            0.023513464257121086,
            0.011444571428000927,
            0.0022974361199885607,
            0.008145618252456188,
            0.00531608983874321,
            0.048630207777023315,
            0.06821443885564804,
            0.008472584187984467,
            -0.08115526288747787,
            -0.07236217707395554,
            -8.22996753413463e-07,
            0.03171125799417496,
            0.003932487685233355,
            0.028582699596881866,
            -0.040640994906425476,
            -0.034677889198064804,
            -0.035565335303545,
            -0.006922852247953415,
            0.033462878316640854,
            0.04925994575023651,
            0.06911802291870117,
            0.12970182299613953,
            0.22160421311855316,
            0.13429021835327148,
            0.06971768289804459,
            0.04507245123386383,
            -0.02800676040351391,
            0.02263924665749073,
            0.07323765754699707,
            0.049628693610429764,
            -0.041560061275959015,
            0.0471109002828598,
            0.032695334404706955,
            0.019222572445869446,
            0.00015439600974787027,
            0.025120962411165237,
            -0.05908666178584099,
            -0.06561163067817688,
            -0.026667747646570206,
            0.041944630444049835,
            0.018155397847294807,
            0.04288369417190552,
            0.021352529525756836,
            0.04784210026264191,
            0.03882509469985962,
            0.056768301874399185,
            0.09618093073368073,
            0.10731524229049683,
            0.10497703403234482,
            0.13795369863510132,
            0.13246884942054749,
            0.13492870330810547,
            0.05741925165057182,
            0.0413975827395916,
            0.029353125020861626,
            -0.020954962819814682,
            -0.029929611831903458,
            0.029106048867106438,
            -0.024203844368457794,
            -0.08204041421413422,
            -0.06641120463609695,
            -0.06471423804759979,
            -0.00806533731520176,
            0.027411136776208878,
            0.022054094821214676,
            -0.045324262231588364,
            -0.03460821509361267,
            -0.011443927884101868,
            0.02927136793732643,
            0.02779325842857361,
            -0.004429268185049295,
            0.011861855164170265,
            0.04028921574354172,
            0.13206911087036133,
            0.12020259350538254,
            0.08001933991909027,
            0.050552383065223694,
            0.13722382485866547,
            0.08430509269237518,
            0.08829513937234879,
            0.0285450778901577,
            0.006759603042155504,
            -0.05290308594703674,
            -0.08233692497015,
            -0.08885782212018967,
            -0.1007077768445015,
            -0.1331547498703003,
            -0.13268017768859863,
            -0.03427401930093765,
            0.0062247384339571,
            0.0012351945042610168,
            0.021116256713867188,
            -0.020667780190706253,
            -0.04064831882715225,
            0.05695418268442154,
            0.04128847271203995,
            0.022263210266828537,
            0.03700888529419899,
            -0.007510002702474594,
            0.05952175334095955,
            0.08298563212156296,
            0.0805877149105072,
            0.0741991400718689,
            0.09003322571516037,
            0.024206392467021942,
            0.03633071854710579,
            0.029701966792345047,
            -0.008121030405163765,
            0.06522236764431,
            -0.02289249375462532,
            -0.062187861651182175,
            -0.06864834576845169,
            -0.06035860627889633,
            -0.0388542003929615,
            -0.09199546277523041,
            -0.09020371735095978,
            -0.0054550678469240665,
            0.014735371805727482,
            0.019876863807439804,
            -0.0324522964656353,
            0.001714508980512619,
            -0.02478809654712677,
            0.032983120530843735,
            -0.026285646483302116,
            0.01090096402913332,
            -0.006479825358837843,
            0.0014296368462964892,
            0.09675361961126328,
            0.10123555362224579,
            0.006605385337024927,
            0.07104615122079849,
            0.07874297350645065,
            0.05202918127179146,
            0.05481661856174469,
            0.03735872730612755,
            0.07032488286495209,
            0.03788703680038452,
            -0.0017916819779202342,
            -0.026079576462507248,
            -0.012278755195438862,
            0.06521408259868622,
            0.07249463349580765,
            0.027020195499062538,
            0.07532354444265366,
            0.025429490953683853,
            -0.016018837690353394,
            -0.013800149783492088,
            -0.00891909934580326,
            -0.015804708003997803,
            -0.0018819533288478851,
            0.00916009396314621,
            -0.013830604963004589,
            -0.04677653685212135,
            -0.016853883862495422,
            0.04833170771598816,
            0.10434180498123169,
            0.09646684676408768,
            0.025146840140223503,
            0.08046940714120865,
            0.034339673817157745,
            0.11463114619255066,
            0.11782614886760712,
            0.12675799429416656,
            0.13588152825832367,
            0.0942356213927269,
            0.11793655157089233,
            0.09433937072753906,
            0.009043385274708271,
            0.10749095678329468,
            0.0681137964129448,
            0.02618788741528988,
            -0.041865281760692596,
            -0.01607293076813221,
            0.01956687867641449,
            -0.03188224136829376,
            0.0010138489305973053,
            0.009614318609237671,
            -0.015523366630077362,
            0.019152533262968063,
            0.055147405713796616,
            0.061047282069921494,
            0.056213974952697754,
            0.06482837349176407,
            0.12688639760017395,
            0.06412165611982346,
            0.057196978479623795,
            0.03511785343289375,
            0.014498024247586727,
            0.08012846857309341,
            0.05183166265487671,
            0.009962067008018494,
            0.07916972786188126,
            0.0914795771241188,
            0.08518320322036743,
            0.06300816684961319,
            0.006385328248143196,
            0.06596089154481888,
            0.06356975436210632,
            0.0661320686340332,
            -0.03128483518958092,
            0.014011744409799576,
            0.018229488283395767,
            0.0219854936003685
        ],
        [
            0.01993977278470993,
            -0.033833976835012436,
            0.005624886602163315,
            0.004635710269212723,
            -0.029957959428429604,
            0.018161747604608536,
            0.01430705189704895,
            0.0021831803023815155,
            0.010682255029678345,
            -0.0014305226504802704,
            -0.010801440104842186,
            -0.023488812148571014,
            -0.010916539467871189,
            -0.013610313646495342,
            -0.000599685765337199,
            0.02202935889363289,
            -0.005803287029266357,
            -0.025957390666007996,
            0.012593701481819153,
            -0.001856975257396698,
            0.011418167501688004,
            0.0024844110012054443,
            -0.015875957906246185,
            0.018208246678113937,
            0.016193188726902008,
            0.016057655215263367,
            -0.0022794976830482483,
            -0.01162361353635788,
            0.0037048496305942535,
            0.022292662411928177,
            -0.01556360349059105,
            0.009322784841060638,
            -0.022996315732598305,
            -0.022932732477784157,
            -0.029968656599521637,
            -0.07023824751377106,
            -0.04183560237288475,
            -0.04268772900104523,
            -0.03426944836974144,
            -0.031394753605127335,
            -0.08020434528589249,
            -0.06624765694141388,
            -0.022855229675769806,
            -0.03129687160253525,
            -0.027563851326704025,
            -0.00022865711071062833,
            -0.04827643558382988,
            -0.010431849397718906,
            -0.014944732189178467,
            -0.054341286420822144,
            -0.014139418490231037,
            0.010599268600344658,
            -0.030789708718657494,
            0.03513616696000099,
            0.030178029090166092,
            0.024590305984020233,
            -0.007051978260278702,
            -0.007108556106686592,
            0.009671386331319809,
            -0.03220526501536369,
            -0.04883871227502823,
            -0.026389291509985924,
            -0.0694010928273201,
            -0.07293010503053665,
            -0.1297363042831421,
            -0.12104937434196472,
            -0.11487977206707001,
            -0.13151080906391144,
            -0.07243606448173523,
            -0.10022346675395966,
            -0.07033899426460266,
            -0.04291410744190216,
            0.012206057086586952,
            0.04206347092986107,
            -0.023562375456094742,
            -0.01603824459016323,
            -0.053178366273641586,
            -0.0396922267973423,
            -0.09698302298784256,
            -0.05993181839585304,
            -0.025681909173727036,
            -0.03127339854836464,
            -0.015079967677593231,
            0.013658169656991959,
            0.03186732903122902,
            -0.008917056024074554,
            -0.0056581199169158936,
            -0.026475457474589348,
            -0.06306617707014084,
            -0.013590033166110516,
            -0.025022346526384354,
            -0.10385540127754211,
            -0.14455896615982056,
            -0.1164136677980423,
            -0.12216713279485703,
            -0.07042516767978668,
            -0.10073837637901306,
            -0.10678735375404358,
            -0.06584496796131134,
            -0.042467452585697174,
            0.0037490350659936666,
            0.012333907186985016,
            0.0779518112540245,
            0.024962425231933594,
            0.02681065909564495,
            -0.04691612720489502,
            -0.06235339865088463,
            -0.11729981750249863,
            -0.068534716963768,
            -0.015803830698132515,
            -0.022045155987143517,
            -0.02511281706392765,
            -0.016527853906154633,
            0.051354821771383286,
            0.021052666008472443,
            0.03417258709669113,
            0.040563084185123444,
            0.011325989849865437,
            -0.04700601473450661,
            -0.03865648806095123,
            -0.07983993738889694,
            -0.07968217134475708,
            -0.05862576141953468,
            -0.053407762199640274,
            0.002085415180772543,
            0.028381559997797012,
            0.04775010049343109,
            0.04470270872116089,
            0.030758224427700043,
            0.056425146758556366,
            0.033779434859752655,
            0.004956673365086317,
            0.026546284556388855,
            -0.013257322832942009,
            -0.07837660610675812,
            -0.1203717291355133,
            -0.008987309411168098,
            0.024773461744189262,
            -0.02133241854608059,
            -0.005115505773574114,
            -0.02824869006872177,
            0.00663091242313385,
            0.006170401815325022,
            0.04790453985333443,
            0.04906676709651947,
            0.061901967972517014,
            0.03282845765352249,
            0.03802083432674408,
            0.009238315746188164,
            0.018157459795475006,
            -0.040736280381679535,
            0.029029810801148415,
            0.052649158984422684,
            0.029022837057709694,
            0.04951285198330879,
            0.10488566011190414,
            0.13874231278896332,
            0.12595126032829285,
            0.06991638243198395,
            0.08337344974279404,
            0.06188882887363434,
            0.005185173824429512,
            -0.010460914112627506,
            -0.08807368576526642,
            -0.10987579077482224,
            -0.031230853870511055,
            -0.0644841194152832,
            5.076480010757223e-05,
            -0.024714190512895584,
            0.06068376079201698,
            0.018421750515699387,
            0.0808476060628891,
            0.015297943726181984,
            0.11310755461454391,
            0.062012284994125366,
            0.01666637323796749,
            0.05424056947231293,
            0.040273845195770264,
            0.008396420627832413,
            0.027996046468615532,
            0.029925253242254257,
            -0.012991614639759064,
            -0.015517673455178738,
            0.03235883638262749,
            0.049931369721889496,
            0.029831761494278908,
            0.02200634591281414,
            0.04489818960428238,
            0.06043051555752754,
            0.022816965356469154,
            0.03760813549160957,
            0.01919243112206459,
            -0.07307183742523193,
            -0.062380351126194,
            -0.00878944806754589,
            -0.07764947414398193,
            0.024462511762976646,
            0.1166275292634964,
            0.05931185930967331,
            0.10151572525501251,
            0.1090090200304985,
            0.15468375384807587,
            0.07529624551534653,
            0.0676102265715599,
            0.08085688948631287,
            0.08207926899194717,
            0.02798069268465042,
            0.030394265428185463,
            -0.018086375668644905,
            0.005952551029622555,
            -0.06097855791449547,
            -0.05694419890642166,
            -0.0668332576751709,
            -0.014012674801051617,
            0.0043583642691373825,
            0.04281829297542572,
            0.05083906278014183,
            0.040658459067344666,
            0.043444231152534485,
            0.013646170496940613,
            -0.03473281487822533,
            -0.043162111192941666,
            -0.020443733781576157,
            -0.04788302630186081,
            -0.056708160787820816,
            0.03072814643383026,
            0.10870375484228134,
            0.12644776701927185,
            0.16665782034397125,
            0.13531836867332458,
            0.08630216866731644,
            0.12199003249406815,
            0.09397495537996292,
            0.11126550287008286,
            0.03860313817858696,
            0.021913403645157814,
            -0.003855137387290597,
            0.03653411194682121,
            -0.07093874365091324,
            -0.06726734340190887,
            -0.005806565284729004,
            0.027991153299808502,
            0.08006369322538376,
            0.07046005874872208,
            0.1003066822886467,
            0.06714201718568802,
            0.06617473810911179,
            -0.00593613414093852,
            -0.021989896893501282,
            -0.03768790140748024,
            0.018386591225862503,
            0.005901776719838381,
            0.04435495287179947,
            0.06528032571077347,
            0.09613572806119919,
            0.11665098369121552,
            0.11556044965982437,
            0.12100934237241745,
            0.09261562675237656,
            0.032728809863328934,
            0.027728116139769554,
            0.08059639483690262,
            -0.023240260779857635,
            -0.021400868892669678,
            -0.008134466595947742,
            -0.03696693107485771,
            -0.023837991058826447,
            -0.06407202780246735,
            0.00978667289018631,
            0.10826390236616135,
            0.09986011683940887,
            0.12463634461164474,
            0.0960826426744461,
            0.060854971408843994,
            0.035469960421323776,
            -0.019269512966275215,
            -0.09312067925930023,
            -0.057446666061878204,
            -0.024809371680021286,
            -0.03239274397492409,
            0.01877707988023758,
            0.04795354977250099,
            0.07841210067272186,
            0.09541933238506317,
            0.10754278302192688,
            0.015223892405629158,
            0.007339423056691885,
            0.02362082526087761,
            -0.01842476613819599,
            -0.055521175265312195,
            -0.059790968894958496,
            -0.03279925882816315,
            -0.07165290415287018,
            -0.05552798882126808,
            -0.051143161952495575,
            -0.06306177377700806,
            0.011430129408836365,
            0.041737113147974014,
            0.08686438947916031,
            0.12624333798885345,
            0.10384661704301834,
            0.09713657200336456,
            0.054281383752822876,
            -0.016737062484025955,
            -0.1241365596652031,
            -0.13368730247020721,
            -0.0425090417265892,
            -0.014292459934949875,
            0.014453163370490074,
            0.03388169780373573,
            0.09204220026731491,
            0.11229115724563599,
            0.08775059133768082,
            -0.005561563652008772,
            -0.004737131297588348,
            -0.03678658604621887,
            -0.027027210220694542,
            -0.019046876579523087,
            -0.08115828782320023,
            -0.043323468416929245,
            -0.01917894370853901,
            -0.06729166209697723,
            -0.0673200935125351,
            0.014152983203530312,
            0.03475233539938927,
            0.06504648178815842,
            0.06294247508049011,
            0.12264447659254074,
            0.07117005437612534,
            -0.019410142675042152,
            -0.04127893224358559,
            -0.0779423639178276,
            -0.10460735112428665,
            -0.03206879273056984,
            0.02258080430328846,
            -0.05101999267935753,
            -0.0156773179769516,
            0.027479637414216995,
            0.09242375195026398,
            0.0941205769777298,
            -0.003877179929986596,
            -0.07415279000997543,
            -0.07982392609119415,
            -0.09319842606782913,
            -0.04880806431174278,
            -0.05102338641881943,
            -0.05435652658343315,
            -0.007542845793068409,
            0.02056899666786194,
            0.012253361754119396,
            -0.0723676085472107,
            -0.01634473353624344,
            0.02531704679131508,
            0.036968816071748734,
            0.03753002732992172,
            0.10388887673616409,
            0.06631536036729813,
            -0.007997790351510048,
            -0.07007993012666702,
            -0.10529884696006775,
            -0.026189805939793587,
            0.07090837508440018,
            0.028670305386185646,
            0.04014822468161583,
            -0.010835325345396996,
            0.04842796549201012,
            0.06074284762144089,
            -0.012340626679360867,
            -0.06207825988531113,
            -0.11944138258695602,
            -0.10986938327550888,
            -0.12150325626134872,
            -0.10919249057769775,
            -0.014232699759304523,
            0.010927782393991947,
            0.06260646879673004,
            0.026198772713541985,
            0.012074464000761509,
            -0.007523400243371725,
            0.004163590259850025,
            0.01431376300752163,
            0.06768365949392319,
            0.03613470122218132,
            -0.006993942428380251,
            -0.003509888891130686,
            -0.04033532738685608,
            -0.09227001667022705,
            -0.11656919121742249,
            -0.056126248091459274,
            0.1032155230641365,
            0.15695497393608093,
            0.017276395112276077,
            -0.030228538438677788,
            0.025227224454283714,
            0.1127099096775055,
            -0.0317857526242733,
            -0.03626231104135513,
            -0.10872022807598114,
            -0.09445066004991531,
            -0.06175945699214935,
            -0.07984407991170883,
            -0.06880692392587662,
            0.015880653634667397,
            0.04524093493819237,
            0.07609564810991287,
            0.04570414498448372,
            0.01473952829837799,
            0.02235029637813568,
            0.056877221912145615,
            0.09806153178215027,
            0.0906066820025444,
            -0.007041648030281067,
            -0.021914556622505188,
            -0.024210304021835327,
            -0.05407100170850754,
            -0.05810282751917839,
            -0.01302244607359171,
            0.05935002863407135,
            0.1107398048043251,
            0.05914787948131561,
            0.013961877673864365,
            0.04775569215416908,
            0.040667593479156494,
            0.040456026792526245,
            0.013975434936583042,
            -0.024045933037996292,
            -0.06540115177631378,
            -0.03159352391958237,
            -0.029957570135593414,
            -0.015204225666821003,
            -0.05637497827410698,
            0.0075651127845048904,
            0.03163060173392296,
            0.06541205197572708,
            0.06631756573915482,
            0.10539610683917999,
            0.044230468571186066,
            0.07983257621526718,
            0.00706750713288784,
            0.008246281184256077,
            -0.05375700816512108,
            -0.032801344990730286,
            0.013397340662777424,
            -0.01685516908764839,
            0.00524795800447464,
            0.06836751848459244,
            0.13325560092926025,
            0.0053452239371836185,
            0.0159329641610384,
            0.010231190361082554,
            0.07206914573907852,
            0.00942836795002222,
            0.02232949808239937,
            0.007482828106731176,
            -0.009341370314359665,
            0.0028725331649184227,
            -0.013332963921129704,
            0.02229378931224346,
            -0.037754420191049576,
            -0.02661306969821453,
            0.07496951520442963,
            0.09527779370546341,
            0.05047834664583206,
            0.11685347557067871,
            0.1035621166229248,
            0.07807766646146774,
            0.04520852863788605,
            0.014766570180654526,
            -0.022435056045651436,
            0.025960087776184082,
            -0.006211163941770792,
            0.05710235983133316,
            0.05495888367295265,
            0.02501866966485977,
            0.08062208443880081,
            0.06474149227142334,
            0.009161382913589478,
            0.02140478976070881,
            0.08407455682754517,
            0.07695651799440384,
            0.08275260776281357,
            0.019104281440377235,
            0.017428645864129066,
            0.04017360135912895,
            -0.00024885375751182437,
            0.002307554241269827,
            -0.043225064873695374,
            -0.014964274130761623,
            0.003094604006037116,
            0.05732281133532524,
            0.05678674578666687,
            0.09944215416908264,
            0.050279878079891205,
            0.0741601511836052,
            -0.04173574224114418,
            -0.041192956268787384,
            -0.007953639142215252,
            0.03665030747652054,
            0.02423068694770336,
            0.05694342032074928,
            0.007665686309337616,
            0.02779645100235939,
            0.07498563826084137,
            -0.01130758784711361,
            -0.03261052817106247,
            0.06658517569303513,
            0.0395020954310894,
            0.12456215918064117,
            0.06314752250909805,
            0.10374580323696136,
            0.0075054471381008625,
            0.0044213393703103065,
            0.012477487325668335,
            -0.041520856320858,
            -0.0656038224697113,
            -0.015886303037405014,
            -0.0176744032651186,
            -0.005726847797632217,
            -0.006468848325312138,
            0.046347636729478836,
            0.03786483034491539,
            -0.007527981419116259,
            -0.05765925347805023,
            -0.006505979690700769,
            -0.061462271958589554,
            -0.020718153566122055,
            -0.010650811716914177,
            0.042854513972997665,
            -0.03510273993015289,
            0.024521317332983017,
            0.0363917239010334,
            -0.02377624623477459,
            -0.03347473964095116,
            -0.0011730871628969908,
            -0.03383970260620117,
            0.08571981638669968,
            0.09654174000024796,
            0.12449237704277039,
            0.04769490286707878,
            -0.0169435553252697,
            -0.0132139315828681,
            -0.019592972472310066,
            -0.09695705026388168,
            -0.0881052315235138,
            -0.07109300792217255,
            -0.06870988011360168,
            -0.008161668665707111,
            0.02643771842122078,
            -0.014215896837413311,
            0.018359245732426643,
            -0.06450460851192474,
            -0.05178714543581009,
            -0.0594792515039444,
            -0.00026758963940665126,
            -0.034038443118333817,
            -0.018336528912186623,
            -0.03882620111107826,
            -0.04553692787885666,
            0.01373252086341381,
            0.02600700594484806,
            0.029342245310544968,
            0.021329181268811226,
            0.0037237468641251326,
            0.030664389953017235,
            0.06283557415008545,
            0.06911966949701309,
            0.0855269506573677,
            0.06768055260181427,
            -0.033011626452207565,
            -0.014346601441502571,
            -0.054669931530952454,
            -0.07704558223485947,
            -0.04915003105998039,
            -0.019051173701882362,
            -0.02975478582084179,
            -0.03362613171339035,
            -0.049575984477996826,
            0.0011108730686828494,
            -0.04963273927569389,
            -0.014926089905202389,
            -0.025797134265303612,
            -0.02654942311346531,
            -0.02475767210125923,
            -0.022173499688506126,
            -0.007109394297003746,
            -0.024564284831285477,
            0.004678674507886171,
            -0.02715776115655899,
            -0.03573543205857277,
            0.03857172280550003,
            -0.019070811569690704,
            -0.003180360421538353,
            0.0343291312456131,
            0.02208368480205536,
            0.03535866737365723,
            0.025538241490721703,
            -0.02411644160747528,
            -0.0436040498316288,
            -0.024578014388680458,
            -0.03405378386378288,
            -0.002623478416353464,
            -0.03132542967796326,
            -0.06090305745601654,
            0.017475521191954613,
